<?xml version="1.0"?>
<opencv_storage>
<my_svm type_id="opencv-ml-svm">
  <svm_type>C_SVC</svm_type>
  <kernel><type>RBF</type>
    <gamma>5.</gamma></kernel>
  <C>1.</C>
  <term_criteria><epsilon>1.1920928955078125e-007</epsilon>
    <iterations>1000</iterations></term_criteria>
  <var_all>100</var_all>
  <var_count>100</var_count>
  <class_count>5</class_count>
  <class_labels type_id="opencv-matrix">
    <rows>1</rows>
    <cols>5</cols>
    <dt>i</dt>
    <data>
      -1163005939 1 2 3 4</data></class_labels>
  <sv_total>71</sv_total>
  <support_vectors>
    <_>
      0. 4.96894419e-002 2.48447210e-002 8.07453394e-002 1.86335407e-002
      1.24223605e-002 0. 1.24223605e-002 0. 1.86335407e-002
      6.21118024e-003 0. 0. 6.21118024e-003 6.21118024e-003
      6.21118024e-003 1.24223605e-002 1.24223605e-002 6.21118024e-003 0.
      2.48447210e-002 6.21118024e-003 6.21118024e-003 6.21118024e-003
      6.21118024e-003 3.10559012e-002 1.86335407e-002 0. 0.
      3.72670814e-002 6.21118024e-003 0. 1.24223605e-002 1.24223605e-002
      6.21118024e-003 6.21118024e-003 1.86335407e-002 0. 2.48447210e-002
      6.21118024e-003 6.21118024e-003 0. 1.24223605e-002 1.86335407e-002
      0. 0. 1.86335407e-002 0. 0. 0. 3.10559012e-002 0. 1.24223605e-002
      0. 0. 1.24223605e-002 0. 1.86335407e-002 1.24223605e-002 0.
      6.21118024e-003 0. 1.86335407e-002 6.21118024e-003 1.24223605e-002
      0. 1.24223605e-002 1.86335407e-002 6.21118024e-003 0. 0.
      6.21118024e-003 1.24223605e-002 0. 6.21118024e-003 0.
      6.21118024e-003 0. 8.69565234e-002 6.21118024e-003 0. 0. 0.
      2.48447210e-002 0. 0. 6.21118024e-003 1.86335407e-002
      6.21118024e-003 0. 6.21118024e-003 2.48447210e-002 0.
      1.24223605e-002 0. 6.21118024e-003 0. 6.21118024e-003
      3.72670814e-002 0.</_>
    <_>
      0. 3.20000015e-002 7.20000044e-002 8.80000070e-002 8.00000038e-003
      8.00000038e-003 1.60000008e-002 0. 8.00000038e-003 0.
      8.00000038e-003 0. 0. 8.00000038e-003 0. 0. 0. 0. 3.20000015e-002
      0. 2.40000002e-002 8.00000038e-003 0. 0. 0. 1.60000008e-002
      1.60000008e-002 8.00000038e-003 0. 0. 0. 0. 2.40000002e-002 0. 0.
      2.40000002e-002 4.00000028e-002 2.40000002e-002 2.40000002e-002
      8.00000038e-003 8.00000038e-003 8.00000038e-003 1.60000008e-002 0.
      0. 1.60000008e-002 4.00000028e-002 0. 0. 0. 3.20000015e-002
      2.40000002e-002 0. 0. 2.40000002e-002 0. 0. 0. 0. 8.00000038e-003
      1.60000008e-002 8.00000038e-003 7.20000044e-002 0. 8.00000038e-003
      0. 8.00000038e-003 0. 2.40000002e-002 0. 0. 0. 0. 0. 0.
      8.00000038e-003 8.00000038e-003 0. 2.40000002e-002 8.00000038e-003
      0. 0. 0. 0. 8.00000038e-003 0. 0. 4.80000004e-002 1.60000008e-002
      0. 0. 8.00000038e-003 0. 0. 8.00000038e-003 1.60000008e-002 0.
      8.00000038e-003 1.60000008e-002 1.60000008e-002</_>
    <_>
      6.66666683e-003 6.66666701e-002 7.33333379e-002 1.20000005e-001 0.
      1.33333337e-002 2.66666673e-002 6.66666683e-003 6.66666683e-003
      6.66666683e-003 6.66666683e-003 6.66666683e-003 0. 1.99999996e-002
      0. 0. 6.66666683e-003 2.66666673e-002 0. 0. 3.33333351e-002
      1.99999996e-002 1.33333337e-002 0. 0. 0. 1.33333337e-002 0. 0.
      1.33333337e-002 0. 0. 6.66666683e-003 6.66666683e-003 0.
      1.33333337e-002 1.33333337e-002 6.66666683e-003 6.66666683e-003 0.
      6.66666683e-003 0. 1.33333337e-002 0. 1.33333337e-002
      2.66666673e-002 1.33333337e-002 6.66666683e-003 0. 0.
      3.99999991e-002 1.99999996e-002 1.99999996e-002 6.66666683e-003
      6.66666683e-003 0. 0. 0. 6.66666683e-003 3.33333351e-002
      1.33333337e-002 0. 1.99999996e-002 6.66666683e-003 6.66666683e-003
      0. 0. 0. 6.66666683e-003 6.66666683e-003 6.66666683e-003 0.
      6.66666683e-003 6.66666683e-003 0. 0. 1.99999996e-002
      6.66666683e-003 3.99999991e-002 6.66666683e-003 6.66666683e-003 0.
      1.99999996e-002 0. 0. 0. 1.33333337e-002 1.33333337e-002 0. 0. 0.
      6.66666683e-003 0. 0. 1.99999996e-002 0. 0. 6.66666683e-003
      6.66666683e-003 0.</_>
    <_>
      0. 8.08080807e-002 7.07070678e-002 4.04040404e-002 1.01010101e-002
      3.03030312e-002 0. 0. 0. 0. 2.02020202e-002 0. 0. 1.01010101e-002
      0. 0. 2.02020202e-002 0. 0. 1.01010101e-002 0. 2.02020202e-002
      2.02020202e-002 0. 0. 2.02020202e-002 2.02020202e-002
      2.02020202e-002 0. 3.03030312e-002 0. 0. 1.01010101e-002
      4.04040404e-002 0. 2.02020202e-002 1.01010101e-002 0. 0. 0. 0. 0.
      2.02020202e-002 0. 0. 0. 3.03030312e-002 1.01010101e-002 0. 0.
      7.07070678e-002 0. 1.01010101e-002 0. 1.01010101e-002
      1.01010101e-002 0. 0. 0. 0. 2.02020202e-002 1.01010101e-002 0. 0.
      4.04040404e-002 0. 0. 1.01010101e-002 0. 2.02020202e-002 0.
      1.01010101e-002 0. 1.01010101e-002 1.01010101e-002 0. 0. 0.
      6.06060624e-002 1.01010101e-002 2.02020202e-002 0. 1.01010101e-002
      0. 4.04040404e-002 0. 2.02020202e-002 0. 0. 0. 0. 0. 0. 0. 0.
      2.02020202e-002 0. 1.01010101e-002 1.01010101e-002 0.</_>
    <_>
      8.62068962e-003 1.72413792e-002 5.17241359e-002 6.03448264e-002
      8.62068962e-003 8.62068962e-003 8.62068962e-003 8.62068962e-003 0.
      8.62068962e-003 8.62068962e-003 0. 1.72413792e-002 0.
      8.62068962e-003 0. 0. 4.31034490e-002 8.62068962e-003
      8.62068962e-003 0. 0. 8.62068962e-003 1.72413792e-002
      8.62068962e-003 3.44827585e-002 1.72413792e-002 0. 0.
      8.62068962e-003 0. 0. 1.72413792e-002 0. 0. 1.72413792e-002
      8.62068962e-003 8.62068962e-003 3.44827585e-002 8.62068962e-003 0.
      0. 2.58620679e-002 0. 0. 2.58620679e-002 2.58620679e-002
      8.62068962e-003 8.62068962e-003 2.58620679e-002 1.72413792e-002
      8.62068962e-003 2.58620679e-002 1.72413792e-002 8.62068962e-003 0.
      0. 0. 8.62068962e-003 0. 0. 8.62068962e-003 0. 0. 5.17241359e-002
      0. 1.72413792e-002 8.62068962e-003 0. 8.62068962e-003 0. 0. 0. 0.
      0. 8.62068962e-003 0. 3.44827585e-002 8.62068962e-003
      8.62068962e-003 0. 8.62068962e-003 1.72413792e-002 8.62068962e-003
      1.72413792e-002 0. 0. 2.58620679e-002 8.62068962e-003 0. 0.
      2.58620679e-002 0. 8.62068962e-003 0. 8.62068962e-003
      8.62068962e-003 1.72413792e-002 8.62068962e-003 8.62068962e-003</_>
    <_>
      6.57894742e-003 3.28947380e-002 2.63157897e-002 1.18421055e-001 0.
      6.57894742e-003 1.97368413e-002 0. 0. 6.57894742e-003
      6.57894742e-003 0. 0. 6.57894742e-003 6.57894742e-003 0.
      6.57894742e-003 1.31578948e-002 1.31578948e-002 0. 1.97368413e-002
      1.97368413e-002 6.57894742e-003 1.97368413e-002 6.57894742e-003
      1.31578948e-002 6.57894742e-003 0. 0. 0. 0. 0. 0. 0. 0.
      6.57894742e-003 4.60526310e-002 1.97368413e-002 2.63157897e-002
      1.31578948e-002 1.31578948e-002 0. 0. 6.57894742e-003 0. 0.
      1.31578948e-002 1.31578948e-002 6.57894742e-003 0. 1.97368413e-002
      1.31578948e-002 0. 0. 1.31578948e-002 0. 0. 1.31578948e-002
      2.63157897e-002 1.97368413e-002 0. 2.63157897e-002 2.63157897e-002
      0. 0. 0. 0. 6.57894742e-003 1.97368413e-002 1.97368413e-002 0.
      1.97368413e-002 0. 0. 0. 6.57894742e-003 1.97368413e-002
      2.63157897e-002 3.28947380e-002 6.57894742e-003 0. 6.57894742e-003
      1.97368413e-002 6.57894742e-003 1.31578948e-002 0. 1.97368413e-002
      1.31578948e-002 0. 2.63157897e-002 0. 0. 0. 0. 6.57894742e-003 0.
      0. 6.57894742e-003 3.94736826e-002 0.</_>
    <_>
      0. 9.25925933e-003 1.85185187e-002 3.70370373e-002 0. 0.
      1.85185187e-002 2.77777780e-002 0. 0. 0. 0. 0. 9.25925933e-003
      9.25925933e-003 0. 9.25925933e-003 3.70370373e-002 4.62962985e-002
      1.85185187e-002 6.48148134e-002 0. 0. 0. 9.25925933e-003
      9.25925933e-003 0. 0. 0. 9.25925933e-003 0. 0. 9.25925933e-003
      2.77777780e-002 9.25925933e-003 3.70370373e-002 9.25925933e-003
      9.25925933e-003 9.25925933e-003 0. 3.70370373e-002 0.
      9.25925933e-003 9.25925933e-003 0. 9.25925933e-003 0. 0. 0.
      9.25925933e-003 2.77777780e-002 3.70370373e-002 4.62962985e-002
      9.25925933e-003 9.25925933e-003 0. 0. 9.25925933e-003
      1.85185187e-002 0. 1.85185187e-002 1.85185187e-002 1.85185187e-002
      9.25925933e-003 1.85185187e-002 0. 0. 9.25925933e-003
      9.25925933e-003 9.25925933e-003 0. 9.25925933e-003 0.
      1.85185187e-002 0. 0. 9.25925933e-003 0. 2.77777780e-002 0. 0. 0.
      9.25925933e-003 9.25925933e-003 9.25925933e-003 0. 2.77777780e-002
      9.25925933e-003 0. 0. 0. 0. 0. 0. 9.25925933e-003 1.85185187e-002
      0. 2.77777780e-002 1.85185187e-002 9.25925933e-003</_>
    <_>
      0. 5.45454547e-002 8.18181783e-002 1.81818176e-002 0. 0.
      2.72727273e-002 0. 0. 0. 9.09090880e-003 0. 9.09090880e-003
      9.09090880e-003 0. 0. 2.72727273e-002 2.72727273e-002 0.
      9.09090880e-003 0. 9.09090880e-003 9.09090880e-003 0. 0. 0.
      9.09090880e-003 0. 0. 9.09090880e-003 0. 0. 9.09090880e-003
      9.09090880e-003 0. 2.72727273e-002 1.81818176e-002 9.09090880e-003
      2.72727273e-002 9.09090880e-003 0. 0. 0. 0. 0. 0. 3.63636352e-002
      1.81818176e-002 9.09090880e-003 0. 6.36363626e-002 9.09090880e-003
      0. 0. 0. 0. 9.09090880e-003 1.81818176e-002 1.81818176e-002 0.
      2.72727273e-002 0. 4.54545431e-002 0. 0. 0. 3.63636352e-002
      9.09090880e-003 0. 2.72727273e-002 0. 9.09090880e-003 0. 0.
      9.09090880e-003 2.72727273e-002 9.09090880e-003 0. 5.45454547e-002
      0. 9.09090880e-003 0. 0. 0. 9.09090880e-003 0. 2.72727273e-002
      9.09090880e-003 9.09090880e-003 1.81818176e-002 0. 0. 0. 0. 0.
      9.09090880e-003 9.09090880e-003 2.72727273e-002 1.81818176e-002 0.</_>
    <_>
      0. 0. 4.68750000e-002 1.09375000e-001 0. 0. 0. 0. 0. 0. 0. 0. 0.
      1.56250000e-002 0. 0. 1.56250000e-002 4.68750000e-002
      1.56250000e-002 0. 0. 0. 0. 0. 0. 0. 0. 0. 0. 0. 0. 0. 0. 0. 0. 0.
      0. 7.81250000e-002 6.25000000e-002 0. 0. 1.56250000e-002 0. 0. 0.
      1.56250000e-002 1.56250000e-002 1.56250000e-002 3.12500000e-002 0.
      0. 0. 6.25000000e-002 0. 0. 0. 1.40625000e-001 0. 0. 0. 0.
      1.56250000e-002 3.12500000e-002 0. 0. 0. 1.56250000e-002 0. 0.
      7.81250000e-002 0. 0. 0. 0. 0. 0. 1.56250000e-002 0.
      1.56250000e-002 1.56250000e-002 1.56250000e-002 0. 3.12500000e-002
      0. 0. 0. 1.56250000e-002 0. 1.56250000e-002 0. 0. 1.56250000e-002
      0. 0. 1.56250000e-002 0. 0. 1.56250000e-002 0. 0.</_>
    <_>
      0. 8.62068962e-003 4.31034490e-002 5.17241359e-002 0. 0. 0. 0. 0.
      0. 0. 8.62068962e-003 0. 0. 2.58620679e-002 1.72413792e-002
      3.44827585e-002 1.72413792e-002 1.72413792e-002 1.72413792e-002
      2.58620679e-002 8.62068962e-003 0. 0. 0. 8.62068962e-003 0. 0.
      4.31034490e-002 1.72413792e-002 0. 8.62068962e-003 0.
      2.58620679e-002 0. 8.62068962e-003 0. 0. 8.62068962e-003 0. 0. 0.
      1.72413792e-002 0. 0. 0. 1.72413792e-002 2.58620679e-002 0.
      1.72413792e-002 4.31034490e-002 8.62068962e-003 0. 1.72413792e-002
      0. 0. 0. 8.62068962e-003 0. 8.62068962e-003 8.62068962e-003
      1.72413792e-002 0. 0. 1.72413792e-002 0. 8.62068962e-003
      8.62068962e-003 0. 3.44827585e-002 0. 0. 0. 8.62068962e-003 0.
      1.72413792e-002 8.62068962e-003 5.17241359e-002 6.03448264e-002
      8.62068962e-003 0. 0. 0. 1.72413792e-002 2.58620679e-002 0.
      8.62068962e-003 1.72413792e-002 0. 2.58620679e-002 0. 0. 0. 0. 0.
      0. 0. 2.58620679e-002 5.17241359e-002 1.72413792e-002</_>
    <_>
      7.93650839e-003 0. 5.55555597e-002 4.76190522e-002 0.
      1.58730168e-002 0. 2.38095261e-002 0. 3.17460336e-002 0.
      7.93650839e-003 7.93650839e-003 0. 0. 0. 7.93650839e-003
      7.93650839e-003 0. 0. 0. 7.93650839e-003 0. 1.58730168e-002 0.
      2.38095261e-002 0. 2.38095261e-002 2.38095261e-002 7.93650839e-003
      0. 0. 0. 7.93650839e-003 7.93650839e-003 0. 7.14285746e-002
      7.93650839e-003 1.58730168e-002 0. 0. 0. 7.93650839e-003 0. 0.
      3.17460336e-002 7.93650839e-003 0. 0. 1.58730168e-002
      4.76190522e-002 7.93650839e-003 0. 2.38095261e-002 0.
      7.93650839e-003 0. 1.58730168e-002 3.17460336e-002 0. 0.
      1.58730168e-002 0. 0. 0. 0. 0. 3.17460336e-002 0. 1.58730168e-002
      0. 2.38095261e-002 7.93650839e-003 7.93650839e-003 0. 0. 0.
      7.93650839e-003 1.58730168e-002 0. 7.93650839e-003 0. 0.
      7.93650839e-003 2.38095261e-002 7.93650839e-003 3.96825410e-002
      7.93650839e-003 0. 3.96825410e-002 0. 1.58730168e-002 0.
      2.38095261e-002 0. 0. 0. 3.17460336e-002 3.96825410e-002 0.</_>
    <_>
      9.90098994e-003 0. 4.95049506e-002 2.97029689e-002 0.
      9.90098994e-003 0. 9.90098994e-003 0. 0. 0. 0. 0. 0. 0.
      1.98019799e-002 9.90098994e-003 1.98019799e-002 2.97029689e-002 0.
      4.95049506e-002 2.97029689e-002 9.90098994e-003 9.90098994e-003 0.
      0. 9.90098994e-003 9.90098994e-003 0. 2.97029689e-002 0. 0. 0.
      9.90098994e-003 9.90098994e-003 9.90098994e-003 1.98019799e-002
      9.90098994e-003 9.90098994e-003 0. 3.96039598e-002 9.90098994e-003
      1.98019799e-002 0. 0. 1.98019799e-002 9.90098994e-003 0.
      9.90098994e-003 1.98019799e-002 1.98019799e-002 9.90098994e-003
      3.96039598e-002 0. 9.90098994e-003 0. 0. 9.90098994e-003 0.
      9.90098994e-003 0. 0. 0. 0. 0. 0. 0. 3.96039598e-002
      2.97029689e-002 1.98019799e-002 0. 0. 0. 2.97029689e-002 0. 0.
      1.98019799e-002 0. 1.98019799e-002 0. 1.98019799e-002 0. 0. 0.
      1.98019799e-002 0. 2.97029689e-002 0. 0. 5.94059378e-002 0.
      9.90098994e-003 0. 9.90098994e-003 0. 1.98019799e-002
      9.90098994e-003 0. 2.97029689e-002 0.</_>
    <_>
      0. 2.77777780e-002 5.55555560e-002 4.16666679e-002 1.38888890e-002
      1.38888890e-002 0. 1.38888890e-002 0. 0. 0. 0. 0. 0. 0. 0.
      2.77777780e-002 2.77777780e-002 0. 0. 2.77777780e-002
      2.77777780e-002 0. 0. 1.38888890e-002 0. 0. 0. 0. 0. 0. 0.
      1.38888890e-002 0. 0. 0. 6.94444478e-002 4.16666679e-002
      2.77777780e-002 1.38888890e-002 5.55555560e-002 1.38888890e-002
      1.38888890e-002 0. 0. 1.38888890e-002 1.38888890e-002 0.
      1.38888890e-002 0. 4.16666679e-002 1.38888890e-002 0. 0. 0. 0. 0.
      2.77777780e-002 0. 1.38888890e-002 0. 0. 0. 0. 0. 1.38888890e-002
      0. 0. 0. 8.33333358e-002 0. 0. 0. 0. 0. 0. 2.77777780e-002 0. 0.
      0. 0. 0. 1.38888890e-002 0. 2.77777780e-002 0. 0. 0. 0. 0. 0.
      1.38888890e-002 0. 0. 0. 1.38888890e-002 0. 2.77777780e-002
      9.72222239e-002 0.</_>
    <_>
      0. 2.89855078e-002 7.24637657e-002 5.79710156e-002 0.
      1.44927539e-002 0. 1.44927539e-002 0. 1.44927539e-002 0. 0.
      1.44927539e-002 1.44927539e-002 0. 1.44927539e-002 4.34782617e-002
      1.44927539e-002 0. 4.34782617e-002 1.44927539e-002 2.89855078e-002
      0. 1.44927539e-002 0. 0. 0. 0. 0. 0. 0. 1.44927539e-002
      1.44927539e-002 0. 1.44927539e-002 2.89855078e-002 0.
      2.89855078e-002 2.89855078e-002 0. 0. 0. 0. 0. 0. 0.
      1.44927539e-002 2.89855078e-002 1.44927539e-002 1.44927539e-002
      1.44927539e-002 1.44927539e-002 0. 1.44927539e-002 1.44927539e-002
      0. 0. 1.44927539e-002 0. 0. 0. 0. 0. 0. 0. 0. 4.34782617e-002 0.
      0. 5.79710156e-002 0. 0. 0. 0. 0. 0. 0. 0. 0. 0. 0. 0.
      1.44927539e-002 0. 2.89855078e-002 0. 1.44927539e-002
      2.89855078e-002 0. 5.79710156e-002 0. 0. 0. 0. 0. 0. 0.
      5.79710156e-002 1.44927539e-002 0.</_>
    <_>
      9.09090880e-003 0. 9.09090862e-002 5.45454547e-002 0.
      9.09090880e-003 0. 9.09090880e-003 0. 0. 0. 0. 0. 9.09090880e-003
      9.09090880e-003 0. 2.72727273e-002 0. 9.09090880e-003
      9.09090880e-003 0. 9.09090880e-003 0. 9.09090880e-003
      9.09090880e-003 3.63636352e-002 1.81818176e-002 9.09090880e-003 0.
      3.63636352e-002 0. 0. 0. 9.09090880e-003 9.09090880e-003
      2.72727273e-002 2.72727273e-002 2.72727273e-002 1.81818176e-002 0.
      0. 0. 0. 0. 9.09090880e-003 0. 0. 2.72727273e-002 0. 0.
      9.09090880e-003 2.72727273e-002 1.81818176e-002 9.09090880e-003 0.
      9.09090880e-003 9.09090880e-003 0. 0. 0. 0. 1.81818176e-002 0. 0.
      9.09090880e-003 0. 1.81818176e-002 1.81818176e-002 2.72727273e-002
      3.63636352e-002 0. 9.09090880e-003 9.09090880e-003 9.09090880e-003
      0. 1.81818176e-002 2.72727273e-002 2.72727273e-002 2.72727273e-002
      0. 0. 0. 9.09090880e-003 0. 0. 0. 9.09090880e-003 9.09090880e-003
      0. 9.09090880e-003 0. 0. 0. 0. 0. 0. 9.09090880e-003
      4.54545431e-002 2.72727273e-002 2.72727273e-002</_>
    <_>
      4.08163257e-002 0. 1.02040814e-002 9.18367356e-002 1.02040814e-002
      0. 1.02040814e-002 2.04081628e-002 0. 0. 2.04081628e-002 0. 0.
      1.02040814e-002 0. 0. 3.06122452e-002 1.02040814e-002 0.
      1.02040814e-002 2.04081628e-002 4.08163257e-002 0. 2.04081628e-002
      0. 3.06122452e-002 0. 2.04081628e-002 0. 1.02040814e-002 0.
      1.02040814e-002 0. 1.02040814e-002 0. 1.02040814e-002
      2.04081628e-002 3.06122452e-002 0. 0. 3.06122452e-002 0.
      1.02040814e-002 0. 0. 0. 2.04081628e-002 1.02040814e-002 0. 0. 0.
      2.04081628e-002 2.04081628e-002 0. 0. 0. 0. 3.06122452e-002
      1.02040814e-002 1.02040814e-002 0. 0. 0. 0. 1.02040814e-002 0.
      1.02040814e-002 1.02040814e-002 3.06122452e-002 3.06122452e-002 0.
      0. 0. 0. 0. 0. 0. 1.02040814e-002 2.04081628e-002 0. 0. 0. 0.
      2.04081628e-002 3.06122452e-002 0. 1.02040814e-002 1.02040814e-002
      0. 4.08163257e-002 0. 1.02040814e-002 0. 1.02040814e-002 0.
      2.04081628e-002 0. 5.10204062e-002 2.04081628e-002 0.</_>
    <_>
      0. 0. 9.75609720e-002 4.87804860e-002 0. 1.62601620e-002
      8.13008100e-003 8.13008100e-003 0. 8.13008100e-003 1.62601620e-002
      8.13008100e-003 0. 1.62601620e-002 8.13008100e-003 8.13008100e-003
      1.62601620e-002 1.62601620e-002 4.87804860e-002 8.13008100e-003
      8.13008100e-003 8.13008100e-003 0. 4.06504050e-002 0.
      3.25203240e-002 0. 1.62601620e-002 0. 8.13008100e-003 0. 0. 0. 0.
      0. 3.25203240e-002 2.43902430e-002 2.43902430e-002 1.62601620e-002
      0. 0. 0. 2.43902430e-002 0. 8.13008100e-003 1.62601620e-002 0.
      1.62601620e-002 8.13008100e-003 8.13008100e-003 1.62601620e-002 0.
      3.25203240e-002 0. 8.13008100e-003 0. 0. 0. 1.62601620e-002
      8.13008100e-003 0. 8.13008100e-003 0. 8.13008100e-003 0. 0.
      1.62601620e-002 0. 1.62601620e-002 8.13008100e-003 0.
      1.62601620e-002 8.13008100e-003 0. 0. 8.13008100e-003
      2.43902430e-002 0. 0. 0. 0. 0. 8.13008100e-003 2.43902430e-002 0.
      0. 8.13008100e-003 4.87804860e-002 0. 2.43902430e-002 0.
      8.13008100e-003 0. 0. 0. 0. 8.13008100e-003 8.13008100e-003 0.
      4.06504050e-002</_>
    <_>
      1.45985400e-002 7.29927002e-003 9.48905125e-002 9.48905125e-002
      7.29927002e-003 5.83941601e-002 1.45985400e-002 2.91970801e-002 0.
      7.29927002e-003 0. 1.45985400e-002 7.29927002e-003 0. 0. 0.
      2.91970801e-002 3.64963487e-002 1.45985400e-002 0. 7.29927002e-003
      1.45985400e-002 0. 7.29927002e-003 0. 7.29927002e-003 0.
      3.64963487e-002 0. 0. 0. 0. 3.64963487e-002 2.18978096e-002 0.
      1.45985400e-002 1.45985400e-002 1.45985400e-002 0. 2.91970801e-002
      0. 0. 1.45985400e-002 0. 0. 0. 2.91970801e-002 7.29927002e-003
      7.29927002e-003 1.45985400e-002 1.45985400e-002 2.18978096e-002 0.
      7.29927002e-003 1.45985400e-002 0. 0. 1.45985400e-002 0. 0. 0. 0.
      7.29927002e-003 0. 0. 0. 0. 7.29927002e-003 2.18978096e-002
      1.45985400e-002 0. 0. 0. 0. 0. 7.29927002e-003 0. 3.64963487e-002
      3.64963487e-002 7.29927002e-003 7.29927002e-003 0. 7.29927002e-003
      7.29927002e-003 0. 0. 1.45985400e-002 1.45985400e-002 0. 0. 0. 0.
      0. 0. 0. 0. 0. 2.18978096e-002 7.29927002e-003 0.</_>
    <_>
      1.73913036e-002 8.69565178e-003 3.47826071e-002 6.08695634e-002
      8.69565178e-003 1.73913036e-002 2.60869563e-002 1.73913036e-002 0.
      1.73913036e-002 0. 0. 0. 8.69565178e-003 1.73913036e-002
      8.69565178e-003 8.69565178e-003 3.47826071e-002 4.34782580e-002 0.
      8.69565178e-003 1.73913036e-002 8.69565178e-003 8.69565178e-003
      8.69565178e-003 8.69565178e-003 0. 0. 0. 1.73913036e-002 0. 0.
      8.69565178e-003 8.69565178e-003 0. 1.73913036e-002 2.60869563e-002
      8.69565178e-003 0. 1.73913036e-002 0. 0. 1.73913036e-002 0.
      8.69565178e-003 3.47826071e-002 8.69565178e-003 8.69565178e-003
      8.69565178e-003 8.69565178e-003 3.47826071e-002 1.73913036e-002 0.
      1.73913036e-002 1.73913036e-002 8.69565178e-003 0. 8.69565178e-003
      0. 1.73913036e-002 0. 1.73913036e-002 0. 0. 8.69565178e-003
      8.69565178e-003 1.73913036e-002 0. 2.60869563e-002 1.73913036e-002
      0. 3.47826071e-002 8.69565178e-003 8.69565178e-003 0.
      8.69565178e-003 0. 6.08695634e-002 1.73913036e-002 0.
      1.73913036e-002 0. 0. 8.69565178e-003 0. 0. 0. 0. 0.
      8.69565178e-003 8.69565178e-003 8.69565178e-003 0. 0. 0. 0. 0. 0.
      0. 0.</_>
    <_>
      0. 0. 8.54700878e-002 1.53846160e-001 0. 2.56410278e-002
      1.70940179e-002 8.54700897e-003 0. 0. 8.54700897e-003 0. 0.
      1.70940179e-002 8.54700897e-003 0. 8.54700897e-003 8.54700897e-003
      2.56410278e-002 0. 3.41880359e-002 8.54700897e-003 0.
      8.54700897e-003 1.70940179e-002 3.41880359e-002 0. 0. 0.
      2.56410278e-002 0. 0. 0. 1.70940179e-002 0. 1.70940179e-002
      1.70940179e-002 1.70940179e-002 8.54700897e-003 1.70940179e-002 0.
      0. 2.56410278e-002 0. 0. 8.54700897e-003 0. 2.56410278e-002 0.
      8.54700897e-003 2.56410278e-002 8.54700897e-003 1.70940179e-002 0.
      0. 0. 0. 8.54700897e-003 8.54700897e-003 0. 0. 2.56410278e-002 0.
      0. 1.70940179e-002 0. 2.56410278e-002 1.70940179e-002
      1.70940179e-002 3.41880359e-002 0. 0. 8.54700897e-003 0.
      8.54700897e-003 0. 0. 8.54700897e-003 8.54700897e-003 0.
      1.70940179e-002 0. 0. 0. 0. 0. 1.70940179e-002 0. 0.
      3.41880359e-002 0. 0. 0. 0. 0. 0. 0. 8.54700897e-003
      2.56410278e-002 0.</_>
    <_>
      1.06382973e-001 2.12765951e-002 2.12765951e-002 0. 0.
      2.12765951e-002 0. 0. 0. 0. 0. 0. 0. 2.12765951e-002 0. 0. 0. 0.
      0. 2.12765951e-002 2.12765951e-002 0. 0. 0. 4.25531901e-002 0.
      2.12765951e-002 0. 2.12765951e-002 0. 2.12765951e-002
      2.12765951e-002 0. 0. 2.12765951e-002 0. 0. 2.12765951e-002 0. 0.
      0. 4.25531901e-002 0. 0. 2.12765951e-002 2.12765951e-002 0.
      2.12765951e-002 0. 0. 0. 2.12765951e-002 0. 2.12765951e-002
      2.12765951e-002 0. 2.12765951e-002 0. 2.12765951e-002 0.
      4.25531901e-002 0. 0. 0. 0. 6.38297871e-002 0. 0. 0.
      6.38297871e-002 0. 0. 0. 2.12765951e-002 0. 0. 0. 0. 0.
      2.12765951e-002 0. 2.12765951e-002 0. 0. 2.12765951e-002
      4.25531901e-002 2.12765951e-002 0. 0. 0. 2.12765951e-002 0. 0. 0.
      0. 0. 0. 0. 2.12765951e-002 2.12765951e-002</_>
    <_>
      3.66972461e-002 0. 9.17431153e-003 1.83486231e-002 0. 0. 0.
      3.66972461e-002 0. 1.83486231e-002 9.17431153e-003 0.
      9.17431153e-003 1.83486231e-002 0. 2.75229346e-002 9.17431153e-003
      0. 0. 0. 9.17431153e-003 9.17431153e-003 9.17431153e-003
      1.83486231e-002 2.75229346e-002 9.17431153e-003 0. 0. 0.
      9.17431153e-003 2.75229346e-002 0. 9.17431153e-003 4.58715558e-002
      6.42201826e-002 9.17431153e-003 0. 0. 0. 0. 1.83486231e-002
      9.17431153e-003 9.17431153e-003 0. 0. 9.17431153e-003
      9.17431153e-003 0. 0. 3.66972461e-002 0. 0. 0. 5.50458692e-002
      2.75229346e-002 9.17431153e-003 9.17431153e-003 0. 9.17431153e-003
      9.17431153e-003 1.83486231e-002 9.17431153e-003 0. 9.17431153e-003
      2.75229346e-002 1.83486231e-002 0. 0. 0. 9.17431153e-003
      1.83486231e-002 9.17431153e-003 1.83486231e-002 9.17431153e-003 0.
      0. 9.17431153e-003 0. 0. 5.50458692e-002 0. 1.83486231e-002 0.
      3.66972461e-002 2.75229346e-002 3.66972461e-002 0. 0.
      9.17431153e-003 0. 0. 0. 0. 0. 0. 0. 0. 9.17431153e-003 0. 0.</_>
    <_>
      1.06382975e-002 0. 5.31914867e-002 7.44680837e-002 0. 0. 0. 0.
      2.12765951e-002 4.25531901e-002 0. 0. 2.12765951e-002
      1.06382975e-002 4.25531901e-002 2.12765951e-002 0. 0.
      2.12765951e-002 0. 1.06382975e-002 0. 0. 0. 0. 1.06382975e-002
      3.19148935e-002 0. 0. 0. 1.06382975e-002 0. 0. 1.06382975e-002
      3.19148935e-002 0. 0. 0. 0. 0. 1.06382975e-002 0. 0.
      1.06382975e-002 0. 1.06382975e-002 0. 0. 0. 0. 0. 0.
      1.06382975e-002 0. 4.25531901e-002 0. 0. 1.06382975e-002 0. 0. 0.
      0. 1.06382975e-002 1.06382975e-002 1.06382975e-002 3.19148935e-002
      0. 0. 3.19148935e-002 0. 0. 1.06382975e-002 4.25531901e-002
      2.12765951e-002 5.31914867e-002 0. 0. 2.12765951e-002 0. 0. 0.
      7.44680837e-002 1.06382975e-002 1.06382975e-002 5.31914867e-002
      2.12765951e-002 0. 0. 0. 0. 0. 2.12765951e-002 0. 0.
      3.19148935e-002 1.06382975e-002 0. 0. 0. 0.</_>
    <_>
      5.71428575e-002 0. 0. 0. 0. 0. 0. 4.28571440e-002 1.42857144e-002
      0. 0. 0. 0. 1.42857144e-002 1.42857144e-002 1.42857149e-001 0. 0.
      1.42857144e-002 0. 0. 1.42857144e-002 0. 0. 0. 1.42857144e-002
      1.42857144e-002 0. 1.42857144e-002 0. 0. 2.85714287e-002
      1.42857144e-002 0. 0. 1.42857144e-002 0. 0. 0. 0. 1.42857144e-002
      0. 1.42857144e-002 0. 0. 1.42857144e-002 0. 0. 0. 1.42857144e-002
      0. 0. 1.42857144e-002 0. 0. 0. 0. 0. 0. 1.42857144e-002
      2.85714287e-002 0. 0. 1.42857144e-002 0. 0. 0. 0. 2.85714287e-002
      0. 0. 0. 0. 1.42857144e-002 0. 0. 2.85714287e-002 2.85714287e-002
      0. 7.14285746e-002 0. 1.00000001e-001 0. 0. 1.42857144e-002 0. 0.
      0. 0. 0. 5.71428575e-002 0. 0. 1.42857144e-002 0. 1.42857144e-002
      8.57142881e-002 0. 0. 0.</_>
    <_>
      1.14942528e-002 0. 1.14942528e-002 0. 0. 0. 0. 0. 2.29885057e-002
      0. 0. 0. 0. 0. 5.74712642e-002 0. 1.14942528e-002 0.
      1.14942528e-002 0. 0. 0. 0. 0. 1.14942528e-002 0. 2.29885057e-002
      0. 1.14942528e-002 0. 1.14942528e-002 1.14942528e-002
      1.14942528e-002 0. 0. 0. 2.29885057e-002 1.14942528e-002 0. 0. 0.
      0. 0. 0. 0. 1.14942528e-002 0. 0. 1.14942528e-002 3.44827585e-002
      0. 0. 0. 0. 6.89655170e-002 0. 4.59770113e-002 0. 0. 0. 0. 0.
      1.14942528e-002 0. 0. 0. 0. 0. 4.59770113e-002 0. 1.95402294e-001
      1.14942528e-002 8.04597735e-002 0. 4.59770113e-002 0.
      1.14942528e-002 5.74712642e-002 0. 2.29885057e-002 0.
      4.59770113e-002 2.29885057e-002 0. 2.29885057e-002 0. 0. 0. 0. 0.
      0. 0. 0. 0. 0. 1.14942528e-002 0. 0. 0. 0.</_>
    <_>
      0. 5.45454547e-002 0. 0. 1.81818176e-002 0. 0. 0. 1.81818176e-002
      5.45454547e-002 1.81818176e-002 0. 3.63636352e-002 1.81818176e-002
      0. 0. 0. 1.81818176e-002 0. 0. 1.81818176e-002 0. 0. 0. 0. 0. 0.
      0. 0. 0. 1.81818176e-002 3.63636352e-002 1.81818176e-002
      1.81818176e-002 0. 3.63636352e-002 1.81818176e-002 0. 0. 0.
      1.81818176e-002 1.81818176e-002 3.63636352e-002 0. 0. 0. 0.
      1.81818176e-002 1.81818176e-002 0. 0. 0. 0. 0. 0. 1.81818176e-002
      1.81818176e-002 0. 0. 0. 0. 1.81818176e-002 0. 0. 0.
      1.81818176e-002 0. 0. 0. 0. 0. 0. 0. 0. 0. 0. 0. 1.81818176e-002
      0. 1.81818176e-002 0. 9.09090862e-002 0. 3.63636352e-002
      1.27272725e-001 7.27272704e-002 0. 0. 1.81818176e-002 0. 0. 0. 0.
      0. 1.81818176e-002 0. 0. 0. 1.81818176e-002 0.</_>
    <_>
      1.28205130e-002 0. 2.56410260e-002 0. 1.28205130e-002 0. 0. 0.
      1.28205130e-002 0. 0. 0. 1.28205130e-002 0. 0. 0. 0. 0. 0.
      2.56410260e-002 0. 0. 0. 0. 2.56410260e-002 2.56410260e-002
      1.28205130e-002 1.28205130e-002 2.56410260e-002 0. 0.
      3.84615399e-002 2.56410260e-002 1.28205130e-002 0. 0. 0. 0. 0.
      2.56410260e-002 0. 0. 0. 0. 1.28205130e-002 0. 0. 0. 0. 0.
      3.84615399e-002 0. 0. 0. 0. 2.56410260e-002 5.12820520e-002 0. 0.
      0. 7.69230798e-002 0. 2.56410260e-002 1.28205130e-002 0. 0. 0. 0.
      0. 0. 1.28205130e-002 5.12820520e-002 0. 2.56410260e-002 0.
      2.56410260e-002 0. 0. 0. 2.56410260e-002 0. 1.28205130e-002 0. 0.
      6.41025677e-002 0. 0. 1.28205130e-002 1.28205130e-002 0.
      6.41025677e-002 0. 0. 0. 0. 3.84615399e-002 5.12820520e-002
      2.56410260e-002 0. 2.56410260e-002</_>
    <_>
      0. 4.08163257e-002 0. 2.04081628e-002 2.04081628e-002 0. 0. 0.
      2.04081628e-002 2.04081628e-002 2.04081628e-002 0. 0. 0. 0. 0. 0.
      0. 2.04081628e-002 0. 0. 0. 2.04081628e-002 0. 0. 4.08163257e-002
      0. 6.12244904e-002 2.04081628e-002 0. 0. 4.08163257e-002 0. 0. 0.
      0. 0. 0. 0. 0. 0. 0. 0. 2.04081628e-002 2.04081628e-002 0. 0. 0.
      4.08163257e-002 0. 0. 0. 0. 0. 0. 4.08163257e-002 0. 0.
      2.04081628e-002 0. 0. 0. 0. 0. 0. 0. 0. 0. 0. 0. 0. 0. 0.
      2.04081628e-002 0. 2.04081628e-002 2.04081628e-002 0. 0.
      8.16326514e-002 0. 1.63265303e-001 0. 0. 4.08163257e-002 0. 0. 0.
      0. 0. 0. 2.04081628e-002 0. 2.04081628e-002 8.16326514e-002
      2.04081628e-002 0. 0. 2.04081628e-002 0.</_>
    <_>
      1.47058824e-002 0. 4.41176482e-002 0. 2.94117648e-002 0. 0. 0.
      2.94117648e-002 0. 1.47058824e-002 0. 0. 0. 1.47058824e-002
      1.47058824e-002 0. 0. 5.88235296e-002 0. 1.47058824e-002 0. 0. 0.
      1.47058824e-002 0. 5.88235296e-002 0. 0. 0. 0. 1.47058824e-002
      2.94117648e-002 0. 0. 0. 0. 1.47058824e-002 0. 0. 0. 0.
      1.47058824e-002 0. 1.47058824e-002 0. 0. 0. 0. 0. 0. 0. 0. 0.
      4.41176482e-002 0. 0. 0. 0. 0. 1.47058824e-002 0. 1.47058824e-002
      1.47058824e-002 0. 0. 0. 0. 0. 0. 0. 2.94117648e-002 0. 0.
      2.94117648e-002 0. 0. 0. 0. 5.88235296e-002 1.47058824e-002
      1.61764711e-001 0. 1.47058824e-002 7.35294148e-002 1.47058824e-002
      2.94117648e-002 2.94117648e-002 0. 0. 0. 0. 0. 0. 0. 0.
      5.88235296e-002 0. 0. 0.</_>
    <_>
      0. 0. 0. 0. 1.85185187e-002 0. 0. 0. 1.85185187e-002 0.
      5.55555560e-002 0. 0. 0. 0. 0. 0. 0. 3.70370373e-002 0.
      1.85185187e-002 0. 0. 0. 0. 0. 3.70370373e-002 0. 1.85185187e-002
      0. 0. 1.85185187e-002 0. 0. 0. 0. 0. 1.85185187e-002
      1.85185187e-002 0. 0. 1.85185187e-002 5.55555560e-002 0. 0. 0. 0.
      0. 1.85185187e-002 1.85185187e-002 1.85185187e-002 0. 0. 0.
      1.85185187e-002 0. 1.85185187e-002 1.85185187e-002 0. 0.
      7.40740746e-002 3.70370373e-002 7.40740746e-002 0. 0.
      3.70370373e-002 0. 0. 0. 0. 0. 1.85185187e-002 0. 0. 0. 0. 0. 0.
      0. 1.85185187e-002 0. 3.70370373e-002 0. 1.85185187e-002
      5.55555560e-002 0. 0. 1.85185187e-002 1.85185187e-002 0. 0. 0. 0.
      3.70370373e-002 3.70370373e-002 3.70370373e-002 0. 0.
      3.70370373e-002 0.</_>
    <_>
      0. 0. 2.43902430e-002 0. 4.87804860e-002 0. 0. 0. 0. 0. 0.
      2.43902430e-002 0. 4.87804860e-002 0. 2.43902430e-002 0. 0. 0. 0.
      2.43902430e-002 0. 0. 0. 2.43902430e-002 0. 2.43902430e-002 0.
      4.87804860e-002 0. 0. 0. 0. 0. 0. 0. 2.43902430e-002 0. 0.
      2.43902430e-002 0. 0. 0. 0. 2.43902430e-002 0. 0. 0. 0. 0.
      4.87804860e-002 0. 0. 0. 0. 0. 4.87804860e-002 0. 0. 0. 0. 0.
      2.43902430e-002 4.87804860e-002 0. 0. 0. 0. 0. 0. 4.87804860e-002
      0. 0. 0. 0. 4.87804860e-002 0. 7.31707290e-002 4.87804860e-002
      2.43902430e-002 0. 0. 0. 0. 4.87804860e-002 0. 4.87804860e-002 0.
      9.75609720e-002 0. 0. 0. 0. 2.43902430e-002 0. 0. 0. 0. 0. 0.</_>
    <_>
      0. 0. 2.63157897e-002 2.63157897e-002 0. 0. 0. 5.26315793e-002
      7.89473653e-002 0. 2.63157897e-002 0. 0. 0. 0. 0. 0.
      2.63157897e-002 0. 0. 0. 0. 0. 0. 0. 2.63157897e-002
      5.26315793e-002 0. 0. 0. 2.63157897e-002 2.63157897e-002 0. 0. 0.
      0. 5.26315793e-002 0. 5.26315793e-002 0. 2.63157897e-002 0. 0. 0.
      0. 0. 0. 0. 2.63157897e-002 0. 2.63157897e-002 0. 0. 0. 0. 0. 0.
      0. 0. 0. 0. 0. 0. 2.63157897e-002 0. 2.63157897e-002 0. 0. 0. 0.
      2.63157897e-002 0. 0. 0. 0. 0. 0. 0. 0. 5.26315793e-002 0.
      1.57894731e-001 0. 2.63157897e-002 0. 0. 2.63157897e-002 0. 0. 0.
      0. 0. 0. 5.26315793e-002 2.63157897e-002 0. 0. 0. 2.63157897e-002
      0.</_>
    <_>
      1.85185187e-002 0. 0. 0. 1.85185187e-002 0. 0. 0. 1.85185187e-002
      0. 0. 0. 0. 1.85185187e-002 5.55555560e-002 3.70370373e-002 0. 0.
      0. 0. 0. 0. 0. 0. 3.70370373e-002 0. 1.85185187e-002
      3.70370373e-002 3.70370373e-002 0. 0. 1.85185187e-002 0. 0. 0. 0.
      1.85185187e-002 0. 0. 0. 0. 0. 0. 1.85185187e-002 1.85185187e-002
      0. 0. 0. 0. 0. 0. 0. 0. 0. 3.70370373e-002 0. 1.85185187e-002 0.
      0. 0. 3.70370373e-002 1.85185187e-002 0. 0. 0. 3.70370373e-002 0.
      0. 0. 0. 0. 0. 0. 0. 0. 0. 0. 5.55555560e-002 0. 1.11111112e-001
      0. 1.85185187e-002 0. 0. 0. 0. 0. 1.85185187e-002 1.29629627e-001
      0. 0. 0. 0. 3.70370373e-002 1.85185187e-002 1.85185187e-002 0. 0.
      3.70370373e-002 3.70370373e-002</_>
    <_>
      8.16326514e-002 0. 0. 0. 0. 0. 0. 0. 0. 0. 0. 2.04081628e-002 0.
      0. 2.04081628e-002 2.04081628e-002 0. 0. 4.08163257e-002 0. 0. 0.
      0. 0. 8.16326514e-002 0. 6.12244904e-002 2.04081628e-002 0. 0. 0.
      0. 2.04081628e-002 0. 0. 0. 0. 2.04081628e-002 0. 2.04081628e-002
      2.04081628e-002 0. 2.04081628e-002 2.04081628e-002 2.04081628e-002
      0. 0. 0. 2.04081628e-002 0. 0. 0. 0. 0. 0. 0. 0. 0. 0. 0.
      2.04081628e-002 0. 0. 0. 0. 0. 0. 0. 0. 2.04081628e-002
      4.08163257e-002 0. 0. 2.04081628e-002 4.08163257e-002 0. 0. 0. 0.
      0. 0. 6.12244904e-002 2.04081628e-002 0. 1.02040812e-001 0. 0.
      2.04081628e-002 0. 0. 0. 6.12244904e-002 0. 2.04081628e-002
      2.04081628e-002 0. 0. 0. 0. 4.08163257e-002</_>
    <_>
      0. 3.03030312e-002 0. 0. 7.57575780e-002 0. 0. 0. 0. 0. 0.
      1.51515156e-002 0. 0. 0. 0. 0. 0. 0. 0. 3.03030312e-002 0. 0. 0.
      3.03030312e-002 0. 3.03030312e-002 1.51515156e-002 3.03030312e-002
      0. 0. 0. 0. 1.51515156e-002 0. 1.51515156e-002 0. 1.51515156e-002
      0. 0. 1.51515156e-002 0. 0. 0. 0. 0. 0. 0. 1.51515156e-002
      1.51515156e-002 0. 1.51515156e-002 0. 0. 1.51515156e-001 0.
      1.51515156e-002 0. 0. 0. 6.06060624e-002 1.51515156e-002 0. 0. 0.
      0. 0. 0. 0. 0. 0. 0. 0. 0. 0. 4.54545468e-002 0. 0. 0.
      3.03030312e-002 0. 0. 0. 7.57575780e-002 0. 1.51515156e-002
      1.51515156e-002 9.09090936e-002 3.03030312e-002 0. 0.
      4.54545468e-002 0. 4.54545468e-002 0. 0. 0. 0. 0. 0.</_>
    <_>
      0. 0. 0. 1.49253728e-002 2.98507456e-002 1.49253728e-002 0. 0. 0.
      0. 2.98507456e-002 1.49253728e-002 0. 0. 2.98507456e-002 0.
      1.49253728e-002 0. 2.98507456e-002 1.49253728e-002 1.49253728e-002
      0. 0. 0. 7.46268630e-002 1.49253728e-002 4.47761193e-002
      1.49253728e-002 0. 0. 0. 0. 2.98507456e-002 0. 0. 1.49253728e-002
      0. 1.49253728e-002 1.49253728e-002 0. 0. 0. 0. 0. 5.97014911e-002
      0. 0. 0. 0. 0. 1.49253728e-002 1.49253728e-002 0. 0.
      2.98507456e-002 0. 1.49253728e-002 0. 0. 0. 4.47761193e-002 0. 0.
      0. 0. 1.49253728e-002 0. 0. 0. 1.49253728e-002 1.49253728e-002 0.
      0. 0. 0. 1.49253728e-002 0. 0. 0. 2.98507456e-002 1.49253728e-002
      0. 0. 2.98507456e-002 1.49253728e-002 0. 0. 4.47761193e-002
      5.97014911e-002 0. 0. 1.49253728e-002 0. 1.04477607e-001 0. 0.
      1.49253728e-002 0. 0. 0.</_>
    <_>
      0. 3.27868834e-002 3.27868834e-002 0. 0. 0. 0. 0. 1.63934417e-002
      3.27868834e-002 0. 0. 3.27868834e-002 0. 1.31147534e-001
      4.91803251e-002 0. 0. 0. 0. 0. 0. 1.63934417e-002 0. 0.
      3.27868834e-002 0. 0. 1.63934417e-002 0. 0. 0. 0. 1.63934417e-002
      1.63934417e-002 0. 0. 0. 0. 1.63934417e-002 0. 0. 0. 0. 0.
      1.63934417e-002 0. 3.27868834e-002 1.63934417e-002 1.63934417e-002
      1.63934417e-002 3.27868834e-002 1.63934417e-002 3.27868834e-002 0.
      0. 0. 0. 0. 1.63934417e-002 0. 1.63934417e-002 0. 0. 0.
      1.63934417e-002 0. 1.63934417e-002 0. 1.63934417e-002 0. 0.
      1.63934417e-002 0. 1.63934417e-002 3.27868834e-002 3.27868834e-002
      4.91803251e-002 0. 1.63934417e-002 0. 0. 1.63934417e-002 0. 0. 0.
      0. 0. 0. 1.63934417e-002 1.63934417e-002 1.63934417e-002
      1.63934417e-002 1.63934417e-002 1.63934417e-002 0. 1.63934417e-002
      0. 0. 0.</_>
    <_>
      0. 0. 0. 0. 1.36986300e-002 1.36986300e-002 0. 0. 1.36986300e-002
      8.21917802e-002 0. 1.36986300e-002 0. 1.36986300e-002 0.
      5.47945201e-002 0. 1.36986300e-002 0. 1.36986300e-002 0.
      1.36986300e-002 0. 0. 0. 2.73972601e-002 0. 2.73972601e-002
      1.36986300e-002 0. 0. 0. 0. 1.36986300e-002 1.36986300e-002 0. 0.
      1.36986300e-002 0. 0. 0. 0. 0. 0. 1.36986300e-002 0. 0. 0. 0. 0.
      0. 0. 0. 5.47945201e-002 0. 1.36986300e-002 2.73972601e-002 0.
      6.84931502e-002 1.36986300e-002 0. 1.36986300e-002 0. 0. 0.
      4.10958901e-002 0. 0. 0. 0. 0. 1.36986300e-002 1.36986300e-002
      1.36986300e-002 0. 1.36986300e-002 0. 2.05479443e-001 0.
      2.73972601e-002 0. 0. 0. 0. 0. 0. 0. 0. 1.36986300e-002 0.
      2.73972601e-002 0. 0. 1.36986300e-002 0. 0. 1.36986300e-002
      1.36986300e-002 0. 2.73972601e-002</_>
    <_>
      9.70873795e-003 9.70873795e-003 1.94174759e-002 0. 0.
      9.70873795e-003 0. 0. 0. 5.82524277e-002 0. 0. 9.70873795e-003
      9.70873795e-003 1.65048540e-001 9.70873795e-003 0. 0.
      9.70873795e-003 0. 0. 9.70873795e-003 0. 0. 0. 0. 0. 0.
      8.73786435e-002 0. 0. 0. 0. 1.94174759e-002 2.91262139e-002 0.
      9.70873795e-003 0. 0. 9.70873795e-003 0. 9.70873795e-003
      9.70873795e-003 0. 9.70873795e-003 9.70873795e-003 0.
      9.70873795e-003 0. 0. 0. 0. 9.70873795e-003 1.94174759e-002
      4.85436916e-002 4.85436916e-002 1.94174759e-002 0. 0.
      9.70873795e-003 9.70873795e-003 0. 0. 9.70873795e-003 0.
      9.70873795e-003 0. 1.94174759e-002 2.91262139e-002 0. 0.
      9.70873795e-003 1.94174759e-002 9.70873795e-003 0. 2.91262139e-002
      9.70873795e-003 4.85436916e-002 0. 0. 0. 0. 2.91262139e-002 0. 0.
      1.94174759e-002 0. 1.94174759e-002 0. 0. 3.88349518e-002 0. 0. 0.
      0. 0. 9.70873795e-003 0. 0. 0.</_>
    <_>
      1.35746617e-002 0. 4.52488707e-003 0. 0. 0. 0. 1.80995483e-002 0.
      0. 0. 6.78733066e-002 9.04977415e-003 0. 9.04977415e-003
      9.04977415e-003 0. 0. 9.04977415e-003 4.52488707e-003
      2.26244349e-002 0. 0. 9.04977415e-003 4.52488707e-003 0. 0. 0. 0.
      4.52488707e-003 0. 4.52488707e-003 0. 1.35746617e-002 0. 0. 0. 0.
      0. 4.52488707e-003 1.35746617e-002 0. 4.52488707e-003 0.
      9.04977396e-002 4.52488707e-003 0. 0. 0. 1.80995483e-002 0. 0.
      9.04977415e-003 1.80995483e-002 2.26244349e-002 1.62895933e-001
      1.62895933e-001 0. 4.52488707e-003 0. 4.52488707e-003 0.
      1.35746617e-002 0. 4.52488707e-003 0. 0. 9.04977415e-003
      9.04977415e-003 0. 3.16742100e-002 3.16742100e-002 9.04977415e-003
      1.35746617e-002 0. 1.80995483e-002 1.35746617e-002 1.35746617e-002
      0. 4.52488707e-003 4.52488707e-003 0. 0. 4.52488707e-003 0.
      1.80995483e-002 0. 9.04977415e-003 3.16742100e-002 0.
      9.04977415e-003 0. 0. 4.52488707e-003 9.04977415e-003 0.
      9.04977415e-003 0. 0. 4.52488707e-003</_>
    <_>
      0. 0. 4.06250000e-001 3.75000000e-001 0. 0. 0. 0. 0. 0. 0. 0. 0.
      0. 0. 0. 0. 0. 0. 0. 0. 0. 0. 0. 0. 6.25000000e-002 0. 0. 0. 0. 0.
      0. 0. 0. 0. 0. 0. 0. 0. 0. 0. 0. 0. 0. 0. 0. 0. 0. 3.12500000e-002
      0. 6.25000000e-002 0. 0. 0. 0. 0. 0. 0. 0. 0. 0. 0. 0. 0. 0. 0. 0.
      0. 0. 0. 0. 0. 0. 0. 0. 0. 0. 0. 3.12500000e-002 0. 0. 0. 0. 0. 0.
      0. 0. 0. 0. 0. 0. 0. 0. 0. 3.12500000e-002 0. 0. 0. 0. 0.</_>
    <_>
      0. 0. 5.71428597e-001 2.61904776e-001 0. 0. 0. 0. 0. 0. 0. 0. 0.
      0. 0. 0. 0. 2.38095243e-002 0. 0. 0. 0. 0. 0. 0. 2.38095243e-002
      0. 0. 0. 0. 0. 0. 0. 0. 0. 0. 0. 0. 0. 0. 0. 0. 0. 0. 0. 0. 0. 0.
      0. 0. 4.76190485e-002 0. 0. 0. 0. 0. 0. 0. 0. 0. 0. 0. 0. 0. 0. 0.
      0. 0. 0. 0. 0. 0. 0. 0. 0. 0. 0. 0. 4.76190485e-002 0. 0. 0. 0. 0.
      0. 0. 0. 0. 0. 0. 0. 0. 0. 0. 0. 0. 0. 0. 2.38095243e-002 0.</_>
    <_>
      0. 0. 4.11764711e-001 4.31372553e-001 0. 0. 0. 0. 0. 0. 0. 0. 0.
      0. 0. 0. 0. 3.92156877e-002 0. 0. 0. 0. 0. 0. 0. 1.96078438e-002
      0. 0. 0. 0. 0. 0. 0. 0. 0. 0. 0. 0. 0. 0. 0. 0. 0. 0. 0. 0. 0. 0.
      1.96078438e-002 0. 3.92156877e-002 0. 0. 0. 0. 0. 0. 0. 0. 0. 0.
      0. 0. 0. 0. 0. 0. 0. 0. 0. 0. 0. 0. 0. 0. 0. 0. 0. 1.96078438e-002
      0. 0. 0. 0. 0. 0. 0. 0. 0. 0. 0. 0. 0. 0. 0. 0. 0. 0. 0.
      1.96078438e-002 0.</_>
    <_>
      0. 0. 2.00000003e-001 2.50000000e-001 0. 0. 0. 0. 0. 0. 0. 0.
      5.00000007e-002 0. 0. 0. 0. 1.00000001e-001 0. 0. 0. 0. 0. 0. 0.
      1.50000006e-001 0. 0. 0. 0. 0. 0. 0. 0. 0. 0. 0. 0. 0. 0. 0. 0. 0.
      0. 0. 0. 0. 0. 1.00000001e-001 0. 0. 0. 0. 0. 0. 0. 0. 0. 0. 0. 0.
      0. 0. 0. 0. 0. 0. 0. 0. 0. 0. 0. 0. 0. 0. 0. 0. 0. 0. 0. 0. 0. 0.
      0. 5.00000007e-002 0. 0. 0. 0. 0. 0. 5.00000007e-002
      5.00000007e-002 0. 0. 0. 0. 0. 0. 0.</_>
    <_>
      0. 0. 3.00000012e-001 3.00000012e-001 0. 0. 0. 0. 0. 0. 0. 0. 0.
      0. 0. 0. 0. 6.66666701e-002 0. 0. 0. 0. 0. 0. 0. 1.33333340e-001
      0. 0. 0. 0. 0. 0. 0. 0. 0. 0. 0. 0. 0. 0. 0. 0. 0. 0. 0. 0. 0. 0.
      6.66666701e-002 0. 0. 0. 0. 0. 0. 0. 0. 0. 0. 0. 0. 0. 0. 0. 0. 0.
      0. 0. 0. 0. 0. 0. 0. 0. 0. 0. 0. 0. 0. 0. 0. 0. 0. 0.
      3.33333351e-002 0. 6.66666701e-002 0. 0. 0. 0. 0. 0.
      3.33333351e-002 0. 0. 0. 0. 0. 0.</_>
    <_>
      0. 0. 6.25000000e-002 2.50000000e-001 0. 6.25000000e-002 0. 0. 0.
      0. 0. 0. 0. 0. 0. 0. 1.25000000e-001 0. 0. 0. 0. 0. 0. 0. 0.
      3.12500000e-001 0. 0. 0. 0. 0. 0. 0. 0. 0. 0. 0. 0. 0. 0. 0. 0. 0.
      0. 0. 0. 0. 0. 6.25000000e-002 0. 0. 0. 0. 0. 0. 0. 0. 0. 0. 0. 0.
      0. 0. 0. 0. 0. 0. 0. 0. 0. 0. 0. 0. 0. 0. 0. 0. 0. 0. 0. 0. 0. 0.
      0. 0. 0. 0. 0. 0. 0. 0. 0. 6.25000000e-002 0. 6.25000000e-002 0.
      0. 0. 0. 0.</_>
    <_>
      0. 0. 6.25000000e-002 1.87500000e-001 0. 0. 0. 0. 0. 0. 0. 0. 0.
      0. 0. 0. 6.25000000e-002 0. 0. 0. 0. 0. 0. 0. 0. 0. 0. 0. 0. 0. 0.
      0. 0. 0. 0. 0. 0. 0. 0. 0. 0. 0. 0. 0. 0. 0. 0. 0. 4.37500000e-001
      0. 0. 0. 6.25000000e-002 0. 0. 0. 0. 6.25000000e-002 0. 0. 0. 0.
      0. 0. 0. 0. 0. 0. 0. 0. 0. 0. 0. 0. 0. 0. 0. 0. 0. 0. 0. 0. 0. 0.
      1.25000000e-001 0. 0. 0. 0. 0. 0. 0. 0. 0. 0. 0. 0. 0. 0. 0.</_>
    <_>
      0. 0. 2.10526317e-001 1.57894731e-001 0. 0. 0. 0. 0. 0. 0. 0. 0.
      0. 0. 0. 1.05263159e-001 0. 0. 0. 0. 0. 0. 0. 0. 0. 0. 0. 0. 0. 0.
      0. 0. 0. 0. 0. 0. 0. 0. 0. 0. 0. 0. 0. 0. 0. 0. 0. 3.68421048e-001
      0. 0. 0. 0. 0. 0. 0. 0. 0. 0. 0. 0. 0. 0. 0. 0. 0. 0. 0. 0. 0. 0.
      0. 0. 0. 0. 0. 0. 0. 0. 0. 0. 0. 0. 0. 5.26315793e-002 0. 0. 0. 0.
      0. 0. 0. 5.26315793e-002 0. 5.26315793e-002 0. 0. 0. 0. 0.</_>
    <_>
      0. 8.33333358e-002 1.25000000e-001 5.00000000e-001 0. 0. 0. 0. 0.
      0. 0. 0. 0. 0. 0. 0. 0. 0. 0. 0. 0. 0. 0. 0. 0. 4.16666679e-002 0.
      4.16666679e-002 0. 0. 0. 0. 0. 0. 0. 0. 0. 0. 0. 0. 0. 0. 0. 0. 0.
      0. 0. 0. 1.25000000e-001 0. 0. 0. 0. 0. 0. 0. 0. 8.33333358e-002
      0. 0. 0. 0. 0. 0. 0. 0. 0. 0. 0. 0. 0. 0. 0. 0. 0. 0. 0. 0. 0. 0.
      0. 0. 0. 0. 0. 0. 0. 0. 0. 0. 0. 0. 0. 0. 0. 0. 0. 0. 0. 0.</_>
    <_>
      0. 0. 2.33333349e-001 3.66666675e-001 0. 0. 0. 0. 0. 0. 0. 0. 0.
      0. 0. 0. 0. 0. 0. 0. 0. 0. 0. 0. 0. 1.66666672e-001 0. 0. 0. 0. 0.
      0. 0. 0. 0. 0. 0. 0. 0. 0. 0. 0. 0. 0. 0. 0. 0. 0. 6.66666701e-002
      0. 0. 0. 0. 0. 0. 0. 0. 1.33333340e-001 0. 0. 0. 0. 0. 0. 0. 0. 0.
      0. 0. 0. 0. 0. 0. 0. 0. 0. 0. 0. 3.33333351e-002 0. 0. 0. 0. 0. 0.
      0. 0. 0. 0. 0. 0. 0. 0. 0. 0. 0. 0. 0. 0. 0.</_>
    <_>
      0. 8.19672048e-002 3.27868819e-001 3.27868819e-001 0. 0. 0. 0. 0.
      0. 1.63934417e-002 0. 0. 0. 0. 0. 0. 3.27868834e-002 0. 0. 0. 0.
      0. 0. 0. 4.91803251e-002 0. 0. 0. 0. 0. 0. 0. 0. 0. 0. 0. 0. 0. 0.
      0. 0. 0. 0. 0. 0. 0. 0. 9.83606502e-002 0. 0. 0. 0. 0. 0. 0. 0.
      3.27868834e-002 0. 0. 0. 0. 0. 0. 0. 0. 0. 0. 0. 0. 0. 0. 0. 0. 0.
      0. 0. 0. 1.63934417e-002 0. 0. 0. 0. 0. 1.63934417e-002 0. 0. 0.
      0. 0. 0. 0. 0. 0. 0. 0. 0. 0. 0. 0.</_>
    <_>
      0. 6.52173907e-002 2.17391308e-002 2.17391308e-002 6.52173907e-002
      0. 0. 2.17391308e-002 0. 0. 2.17391308e-002 0. 0. 0. 0. 0. 0.
      2.17391308e-002 0. 0. 0. 2.17391308e-002 0. 0. 0. 0. 0.
      1.30434781e-001 0. 0. 0. 0. 0. 0. 0. 4.34782617e-002
      2.17391308e-002 0. 2.17391308e-002 0. 0. 0. 0. 8.69565234e-002 0.
      0. 2.17391308e-002 0. 4.34782617e-002 0. 1.52173921e-001
      2.17391308e-002 0. 0. 0. 0. 0. 2.17391308e-002 0. 0. 0. 0. 0. 0.
      0. 0. 0. 4.34782617e-002 0. 0. 0. 0. 0. 0. 0. 0. 0. 0. 0. 0. 0. 0.
      0. 0. 0. 0. 6.52173907e-002 0. 0. 0. 0. 4.34782617e-002
      2.17391308e-002 0. 0. 0. 0. 0. 0. 0.</_>
    <_>
      0. 0. 0. 0. 2.38095243e-002 4.76190485e-002 0. 0. 2.38095243e-002
      0. 0. 0. 0. 0. 0. 0. 2.38095243e-002 4.76190485e-002
      4.76190485e-002 0. 0. 0. 2.38095243e-002 0. 0. 2.38095243e-002 0.
      0. 0. 0. 0. 0. 2.38095243e-002 0. 0. 2.38095243e-002 0.
      7.14285746e-002 0. 2.38095243e-002 0. 0. 0. 0. 2.38095243e-002 0.
      0. 0. 0. 0. 4.76190485e-002 2.38095243e-002 0. 0. 0. 0. 0. 0. 0.
      4.76190485e-002 0. 0. 0. 9.52380970e-002 0. 0. 2.38095243e-002 0.
      0. 2.38095243e-002 0. 2.38095243e-002 0. 0. 2.38095243e-002 0. 0.
      0. 0. 0. 0. 0. 2.38095243e-002 0. 4.76190485e-002 0.
      2.38095243e-002 0. 0. 0. 0. 2.38095243e-002 2.38095243e-002 0. 0.
      7.14285746e-002 0. 0. 4.76190485e-002 0.</_>
    <_>
      0. 0. 0. 3.57142873e-002 0. 0. 0. 0. 0. 0. 0. 0. 3.57142873e-002
      0. 0. 0. 3.57142873e-002 0. 0. 0. 0. 3.57142873e-002
      7.14285746e-002 0. 0. 0. 0. 0. 0. 0. 0. 7.14285746e-002
      7.14285746e-002 3.57142873e-002 3.57142873e-002 0. 0.
      3.57142873e-002 0. 3.57142873e-002 0. 0. 0. 0. 0. 0. 0. 0. 0. 0.
      7.14285746e-002 1.07142866e-001 0. 0. 0. 0. 0. 3.57142873e-002 0.
      7.14285746e-002 0. 0. 0. 0. 7.14285746e-002 0. 0. 0. 0.
      3.57142873e-002 0. 0. 0. 0. 0. 0. 0. 0. 0. 0. 0. 0.
      3.57142873e-002 0. 0. 0. 0. 0. 0. 0. 0. 3.57142873e-002
      3.57142873e-002 0. 0. 0. 0. 0. 0. 0.</_>
    <_>
      0. 0. 1.38461545e-001 4.61538471e-002 0. 1.53846154e-002 0. 0.
      1.53846154e-002 0. 3.07692308e-002 0. 0. 0. 0. 1.53846154e-002
      1.53846154e-002 0. 0. 0. 0. 1.53846154e-002 0. 0. 0.
      1.53846154e-002 0. 0. 0. 0. 1.53846154e-002 4.61538471e-002
      1.53846154e-002 0. 0. 3.07692308e-002 0. 1.53846154e-002
      1.53846154e-002 1.53846154e-002 0. 1.53846154e-002 0. 0. 0. 0. 0.
      0. 1.53846154e-002 0. 7.69230798e-002 1.53846154e-002 0. 0. 0. 0.
      0. 1.53846154e-002 0. 0. 1.53846154e-002 0. 0. 0. 1.53846154e-002
      0. 0. 0. 0. 0. 0. 0. 0. 0. 3.07692308e-002 0. 0. 0.
      1.53846154e-002 0. 0. 3.07692308e-002 0. 0. 1.23076923e-001
      4.61538471e-002 1.53846154e-002 0. 1.53846154e-002 0. 0. 0. 0.
      1.53846154e-002 1.53846154e-002 4.61538471e-002 0. 0.
      1.53846154e-002 0.</_>
    <_>
      0. 0. 6.89655170e-002 0. 3.44827585e-002 3.44827585e-002 0. 0. 0.
      0. 0. 0. 6.89655170e-002 3.44827585e-002 0. 0. 0. 0. 0. 0. 0.
      3.44827585e-002 0. 0. 0. 0. 0. 1.37931034e-001 0. 0. 0.
      3.44827585e-002 3.44827585e-002 0. 0. 0. 3.44827585e-002 0. 0.
      3.44827585e-002 0. 0. 0. 0. 0. 0. 0. 0. 3.44827585e-002 0. 0. 0.
      0. 0. 0. 0. 0. 0. 0. 0. 0. 0. 0. 0. 0. 0. 0. 0. 0. 0. 0. 0. 0. 0.
      6.89655170e-002 0. 0. 0. 1.03448272e-001 0. 3.44827585e-002 0.
      3.44827585e-002 0. 6.89655170e-002 0. 0. 0. 0. 0. 0. 0.
      3.44827585e-002 0. 0. 0. 0. 0. 6.89655170e-002 0.</_>
    <_>
      0. 0. 0. 0. 0. 1.08108111e-001 0. 0. 2.70270277e-002 0. 0. 0. 0.
      0. 0. 5.40540554e-002 0. 0. 1.08108111e-001 0. 0. 0.
      2.70270277e-002 0. 0. 0. 0. 0. 0. 0. 1.35135144e-001
      2.70270277e-002 0. 0. 0. 0. 0. 0. 0. 5.40540554e-002 0. 0. 0. 0.
      0. 0. 0. 0. 0. 0. 0. 5.40540554e-002 0. 0. 0. 2.70270277e-002 0.
      0. 0. 8.10810849e-002 0. 0. 2.70270277e-002 0. 0. 0. 0. 0. 0. 0.
      0. 5.40540554e-002 0. 0. 0. 0. 0. 0. 0. 0. 0. 2.70270277e-002
      5.40540554e-002 0. 2.70270277e-002 0. 2.70270277e-002 0. 0. 0. 0.
      0. 0. 2.70270277e-002 2.70270277e-002 2.70270277e-002 0. 0. 0. 0.</_>
    <_>
      0. 0. 0. 0. 0. 0. 0. 0. 0. 0. 0. 0. 7.14285746e-002
      7.14285746e-002 0. 0. 0. 0. 0. 0. 0. 0. 7.14285746e-002 0. 0. 0.
      0. 0. 0. 0. 0. 0. 2.85714298e-001 0. 0. 0. 0. 7.14285746e-002 0.
      0. 0. 0. 0. 0. 0. 0. 0. 0. 0. 0. 0. 7.14285746e-002 0. 0. 0. 0. 0.
      0. 0. 0. 0. 0. 0. 0. 7.14285746e-002 0. 0. 0. 0. 0. 0. 0. 0. 0. 0.
      0. 0. 0. 0. 0. 0. 0. 1.42857149e-001 0. 0. 0. 0. 0. 0. 0. 0. 0. 0.
      0. 7.14285746e-002 0. 7.14285746e-002 0. 0. 0.</_>
    <_>
      0. 2.43902430e-002 7.31707290e-002 4.87804860e-002 0.
      2.43902430e-002 0. 0. 0. 0. 0. 0. 0. 0. 0. 0. 0. 0.
      2.43902430e-002 0. 0. 0. 2.43902430e-002 0. 0. 0. 2.43902430e-002
      0. 0. 0. 4.87804860e-002 2.43902430e-002 2.43902430e-002 0. 0. 0.
      0. 2.43902430e-002 0. 0. 0. 0. 0. 0. 0. 0. 0. 0. 0.
      4.87804860e-002 0. 2.43902430e-002 0. 0. 0. 0. 0. 0. 0. 0. 0.
      7.31707290e-002 0. 0. 0. 0. 2.43902430e-002 0. 0. 0. 0.
      2.43902430e-002 0. 0. 2.43902430e-002 0. 0. 2.43902430e-002
      7.31707290e-002 0. 0. 7.31707290e-002 0. 0. 4.87804860e-002
      9.75609720e-002 0. 0. 0. 0. 0. 0. 0. 2.43902430e-002 0.
      4.87804860e-002 0. 0. 2.43902430e-002 0.</_>
    <_>
      1.75438598e-002 8.77192989e-002 1.05263159e-001 5.26315793e-002
      5.26315793e-002 1.75438598e-002 0. 1.75438598e-002 0. 0.
      1.75438598e-002 0. 0. 1.75438598e-002 0. 0. 0. 0. 5.26315793e-002
      0. 0. 0. 0. 0. 3.50877196e-002 0. 0. 0. 0. 3.50877196e-002 0. 0.
      0. 1.75438598e-002 0. 0. 0. 0. 0. 0. 1.75438598e-002 0. 0.
      5.26315793e-002 0. 1.75438598e-002 7.01754391e-002 0. 0. 0.
      3.50877196e-002 0. 0. 0. 0. 0. 0. 1.75438598e-002 0. 0. 0. 0.
      1.75438598e-002 0. 0. 0. 1.75438598e-002 1.75438598e-002
      1.75438598e-002 1.75438598e-002 0. 0. 0. 0. 1.75438598e-002 0. 0.
      0. 0. 1.75438598e-002 1.75438598e-002 0. 1.75438598e-002 0. 0. 0.
      0. 0. 0. 0. 1.75438598e-002 0. 1.75438598e-002 0. 0. 0. 0. 0.
      7.01754391e-002 0.</_>
    <_>
      0. 0. 1.88679248e-002 0. 1.88679248e-002 1.88679248e-002
      5.66037744e-002 0. 0. 1.88679248e-002 1.88679248e-002 0. 0.
      1.88679248e-002 3.77358496e-002 0. 0. 1.88679248e-002 0. 0. 0. 0.
      0. 0. 1.88679248e-002 1.88679248e-002 0. 0. 0. 0. 0. 0. 0. 0. 0.
      3.77358496e-002 0. 1.88679248e-002 5.66037744e-002 3.77358496e-002
      0. 0. 1.88679248e-002 3.77358496e-002 0. 0. 0. 0. 0. 0.
      1.88679248e-002 1.88679248e-002 0. 0. 0. 0. 0. 0. 0. 0. 0. 0. 0.
      1.88679248e-001 0. 0. 3.77358496e-002 0. 0. 1.88679248e-002 0.
      1.88679248e-002 0. 0. 0. 0. 0. 0. 0. 1.88679248e-002 0. 0. 0. 0.
      0. 0. 1.88679248e-002 0. 0. 0. 0. 0. 0. 1.88679248e-002
      1.88679248e-002 0. 0. 0. 1.50943398e-001 0.</_>
    <_>
      0. 1.49253728e-002 0. 0. 0. 4.47761193e-002 1.49253728e-002 0. 0.
      0. 0. 0. 0. 0. 0. 0. 0. 0. 1.49253728e-002 2.98507456e-002 0.
      1.49253728e-002 1.49253728e-002 0. 4.47761193e-002 0. 0.
      5.97014911e-002 0. 0. 0. 0. 0. 0. 0. 0. 0. 2.98507456e-002 0.
      1.19402982e-001 1.49253728e-002 0. 0. 4.47761193e-002 0. 0. 0. 0.
      1.49253728e-002 2.98507456e-002 1.49253728e-002 0. 0. 0. 0. 0. 0.
      0. 0. 0. 0. 0. 0. 0. 0. 0. 0. 2.98507456e-002 0. 0. 0.
      1.49253728e-002 0. 0. 0. 0. 0. 0. 0. 0. 1.49253728e-002 0. 0. 0.
      5.97014911e-002 0. 0. 0. 0. 1.49253728e-002 0. 2.98507456e-002
      1.04477607e-001 0. 1.49253728e-002 0. 0. 8.95522386e-002
      7.46268630e-002 2.98507456e-002</_>
    <_>
      0. 0. 0. 0. 1.88679248e-002 3.77358496e-002 0. 0. 1.88679248e-002
      0. 0. 0. 0. 1.88679248e-002 7.54716992e-002 0. 1.88679248e-002
      3.77358496e-002 1.88679248e-002 0. 0. 0. 0. 0. 1.88679248e-002
      1.88679248e-002 0. 0. 5.66037744e-002 0. 0. 1.88679248e-002 0. 0.
      0. 0. 0. 5.66037744e-002 0. 0. 0. 9.43396240e-002 1.88679248e-002
      9.43396240e-002 0. 0. 0. 0. 0. 0. 1.88679248e-002 5.66037744e-002
      0. 0. 0. 0. 0. 0. 0. 0. 0. 0. 0. 5.66037744e-002 0. 0. 0. 0. 0. 0.
      0. 0. 0. 0. 0. 1.88679248e-002 0. 3.77358496e-002 1.88679248e-002
      3.77358496e-002 0. 0. 0. 0. 1.88679248e-002 0. 0. 0. 0. 0. 0.
      3.77358496e-002 0. 1.88679248e-002 1.88679248e-002 0. 0. 0.
      3.77358496e-002 0.</_>
    <_>
      0. 6.06060624e-002 9.09090936e-002 1.51515156e-002 0.
      1.51515156e-002 0. 0. 1.51515156e-002 0. 4.54545468e-002 0. 0. 0.
      0. 0. 3.03030312e-002 1.51515156e-002 1.51515156e-002 0. 0.
      1.51515156e-002 0. 0. 1.51515156e-002 0. 0. 0. 0. 1.51515156e-002
      0. 0. 1.51515156e-002 0. 0. 0. 0. 3.03030312e-002 0.
      6.06060624e-002 0. 0. 0. 4.54545468e-002 3.03030312e-002 0. 0. 0.
      0. 0. 3.03030312e-002 0. 0. 0. 0. 0. 6.06060624e-002
      3.03030312e-002 0. 1.51515156e-002 0. 1.51515156e-002 0.
      1.51515156e-002 1.51515156e-002 0. 1.51515156e-002 0. 0.
      1.51515156e-002 0. 1.51515156e-002 0. 0. 0. 0. 0. 3.03030312e-002
      1.51515156e-002 0. 0. 0. 0. 0. 0. 0. 0. 0. 1.51515156e-002 0. 0.
      4.54545468e-002 0. 7.57575780e-002 0. 1.51515156e-002 0. 0.
      4.54545468e-002 0.</_>
    <_>
      0. 1.56250000e-002 3.12500000e-002 3.12500000e-002 1.56250000e-002
      3.12500000e-002 0. 0. 0. 0. 0. 0. 0. 1.56250000e-002 0. 0.
      4.68750000e-002 0. 0. 3.12500000e-002 0. 0. 1.56250000e-002 0.
      1.56250000e-002 0. 0. 0. 0. 0. 0. 4.68750000e-002 0. 0. 0.
      1.56250000e-002 7.81250000e-002 1.56250000e-002 3.12500000e-002
      1.56250000e-002 0. 0. 0. 3.12500000e-002 6.25000000e-002 0.
      1.56250000e-002 0. 0. 0. 1.56250000e-002 1.56250000e-002 0. 0. 0.
      0. 9.37500000e-002 0. 0. 0. 0. 0. 0. 1.56250000e-002 0. 0. 0. 0.
      0. 0. 0. 0. 0. 3.12500000e-002 0. 0. 1.56250000e-002
      1.56250000e-002 1.56250000e-002 0. 0. 0. 0. 0. 1.56250000e-002 0.
      3.12500000e-002 0. 3.12500000e-002 0. 0. 4.68750000e-002
      1.56250000e-002 0. 0. 0. 0. 0. 6.25000000e-002 1.56250000e-002</_>
    <_>
      0. 0. 1.31578952e-001 0. 0. 2.63157897e-002 0. 0. 0. 0. 0. 0. 0.
      0. 0. 0. 5.26315793e-002 0. 1.05263159e-001 0. 0. 0.
      2.63157897e-002 0. 7.89473653e-002 0. 0. 0. 0. 0. 0.
      5.26315793e-002 0. 0. 0. 2.63157897e-002 5.26315793e-002 0. 0.
      2.63157897e-002 2.63157897e-002 2.63157897e-002 0. 0. 0. 0. 0. 0.
      0. 0. 0. 0. 0. 0. 0. 0. 0. 7.89473653e-002 0. 0. 0. 0. 0. 0. 0. 0.
      0. 0. 0. 0. 0. 0. 0. 0. 0. 0. 0. 0. 2.63157897e-002 0.
      2.63157897e-002 0. 0. 0. 2.63157897e-002 0. 2.63157897e-002 0. 0.
      0. 0. 1.05263159e-001 0. 5.26315793e-002 0. 0. 0. 0.
      2.63157897e-002 0.</_>
    <_>
      0. 0. 1.96078438e-002 1.96078438e-002 5.88235334e-002
      1.96078438e-002 0. 0. 0. 0. 0. 0. 0. 0. 0. 0. 0. 0.
      3.92156877e-002 3.92156877e-002 1.96078438e-002 0. 3.92156877e-002
      0. 1.96078438e-002 0. 0. 1.96078438e-002 0. 0. 0. 5.88235334e-002
      0. 0. 0. 0. 1.96078438e-002 0. 0. 1.96078438e-002 1.96078438e-002
      0. 1.96078438e-002 0. 0. 0. 0. 0. 0. 0. 0. 0. 0. 0. 0. 0.
      7.84313753e-002 5.88235334e-002 0. 0. 0. 0. 0. 1.96078438e-002 0.
      0. 0. 1.96078438e-002 0. 0. 0. 1.96078438e-002 0. 0. 0.
      3.92156877e-002 0. 0. 0. 0. 0. 1.96078438e-002 0. 0.
      7.84313753e-002 3.92156877e-002 1.96078438e-002 0. 0. 0.
      1.96078438e-002 9.80392173e-002 0. 0. 0. 3.92156877e-002 0. 0.
      1.96078438e-002 0.</_>
    <_>
      0. 0. 4.76190485e-002 0. 0. 2.38095243e-002 0. 0. 0. 0. 0. 0. 0.
      0. 0. 0. 2.38095243e-002 0. 0. 0. 0. 0. 2.38095243e-002 0.
      2.38095243e-002 2.38095243e-002 7.14285746e-002 2.38095243e-002 0.
      2.38095243e-002 2.38095243e-002 2.38095243e-002 2.38095243e-002 0.
      0. 2.38095243e-002 0. 0. 0. 0. 2.38095243e-002 0. 0.
      2.38095243e-002 0. 0. 2.38095243e-002 0. 0. 0. 0. 4.76190485e-002
      0. 0. 0. 0. 0. 0. 0. 0. 2.38095243e-002 0. 0. 0. 2.38095243e-002
      0. 0. 0. 2.38095243e-002 0. 0. 4.76190485e-002 0. 0. 0. 0. 0. 0.
      2.38095243e-002 0. 7.14285746e-002 0. 2.38095243e-002 0.
      4.76190485e-002 0. 2.38095243e-002 0. 0. 0. 2.38095243e-002
      4.76190485e-002 2.38095243e-002 2.38095243e-002 0. 2.38095243e-002
      0. 0. 4.76190485e-002 0.</_>
    <_>
      0. 1.99999996e-002 5.99999987e-002 0. 0. 1.99999996e-002 0. 0.
      3.99999991e-002 0. 3.99999991e-002 0. 0. 1.99999996e-002 0. 0. 0.
      1.99999996e-002 7.99999982e-002 0. 0. 0. 1.99999996e-002 0. 0. 0.
      0. 1.99999996e-002 0. 0. 1.99999996e-002 1.99999996e-002 0. 0. 0.
      1.99999996e-002 0. 9.99999940e-002 0. 1.99999996e-002 0. 0. 0.
      5.99999987e-002 1.99999996e-002 0. 1.99999996e-002 0. 0. 0.
      3.99999991e-002 0. 0. 0. 0. 0. 5.99999987e-002 0. 0.
      1.99999996e-002 0. 0. 0. 1.99999996e-002 0. 1.99999996e-002
      1.99999996e-002 0. 1.99999996e-002 0. 0. 1.99999996e-002 0. 0. 0.
      0. 0. 0. 0. 0. 0. 0. 0. 0. 0. 3.99999991e-002 1.99999996e-002 0.
      1.99999996e-002 0. 0. 3.99999991e-002 1.99999996e-002
      1.99999996e-002 0. 0. 0. 0. 0. 0.</_>
    <_>
      0. 1.75438598e-002 0. 5.26315793e-002 0. 1.75438598e-002 0. 0.
      1.75438598e-002 0. 0. 0. 0. 0. 0. 0. 3.50877196e-002 0.
      3.50877196e-002 0. 0. 0. 1.75438598e-002 0. 1.75438598e-002
      1.75438598e-002 0. 0. 0. 0. 0. 3.50877196e-002 0. 0. 0.
      3.50877196e-002 7.01754391e-002 3.50877196e-002 1.75438598e-002
      3.50877196e-002 0. 0. 0. 5.26315793e-002 1.75438598e-002 0. 0. 0.
      0. 0. 1.75438598e-002 1.75438598e-002 0. 0. 0. 0. 7.01754391e-002
      0. 0. 0. 0. 1.75438598e-002 0. 0. 1.75438598e-002 0. 0.
      1.75438598e-002 0. 1.75438598e-002 0. 0. 0. 1.75438598e-002 0. 0.
      0. 0. 0. 0. 0. 0. 0. 0. 1.75438598e-002 1.75438598e-002
      1.75438598e-002 0. 1.05263159e-001 0. 0. 1.75438598e-002 0.
      3.50877196e-002 0. 0. 0. 0. 7.01754391e-002 0.</_>
    <_>
      0. 5.55555560e-002 1.66666672e-001 0. 2.77777780e-002 0. 0. 0. 0.
      0. 0. 0. 0. 0. 0. 0. 2.77777780e-002 0. 5.55555560e-002 0. 0. 0.
      2.77777780e-002 0. 0. 0. 2.77777780e-002 0. 0. 0. 0. 0. 0.
      2.77777780e-002 0. 2.77777780e-002 0. 0. 0. 2.77777780e-002
      2.77777780e-002 0. 0. 0. 0. 0. 2.77777780e-002 2.77777780e-002 0.
      0. 0. 0. 2.77777780e-002 0. 0. 0. 0. 2.77777780e-002
      2.77777780e-002 0. 2.77777780e-002 0. 0. 0. 0. 0. 0.
      2.77777780e-002 0. 0. 0. 0. 0. 0. 2.77777780e-002 0. 0. 0.
      2.77777780e-002 0. 0. 0. 0. 0. 5.55555560e-002 5.55555560e-002 0.
      0. 0. 0. 0. 2.77777780e-002 0. 0. 0. 8.33333358e-002 0. 0.
      2.77777780e-002 0.</_></support_vectors>
  <decision_functions>
    <_>
      <sv_count>11</sv_count>
      <rho>1.0032394270859721e+000</rho>
      <alpha>
        1. -5.8898269785380458e-002 -9.9872016793333310e-002
        -2.7466583069950495e-001 -6.3921709264380983e-002
        -2.6851648809250728e-001 -8.2097897282834259e-002
        -2.2020678323938767e-003 -1.1236060423406352e-001
        -4.6925992406367922e-003 -3.2772516774964490e-002</alpha>
      <index>
        0 1 2 3 4 5 6 7 9 10 15</index></_>
    <_>
      <sv_count>12</sv_count>
      <rho>1.0256771331527661e+000</rho>
      <alpha>
        1. -1.6299991904940225e-001 -2.1181134232095675e-001
        -3.1830441420129724e-002 -8.4195746982252934e-002
        -1.4728064956579948e-001 -6.3652776764484720e-002
        -4.3191217994393440e-002 -9.4725008881964209e-002
        -1.0102194371731354e-001 -8.0601383437581579e-004
        -5.8484939468927181e-002</alpha>
      <index>
        0 21 22 26 29 30 31 34 35 36 39 40</index></_>
    <_>
      <sv_count>8</sv_count>
      <rho>9.8717174141713115e-001</rho>
      <alpha>
        1. -1.9572726117065450e-001 -1.4299869855382646e-001
        -3.2748830741984349e-002 -6.8394049244276337e-003
        -4.9561671153642069e-003 -2.9143460097678816e-002
        -5.8758617739606400e-001</alpha>
      <index>
        0 43 45 46 48 49 50 51</index></_>
    <_>
      <sv_count>11</sv_count>
      <rho>1.0335778992265934e+000</rho>
      <alpha>
        1. -6.8249665118453332e-002 -6.5210208201847475e-002
        -1.6607286603674870e-001 -3.1511783205498234e-001
        -2.3550130566461464e-002 -4.7181585893697309e-002
        -4.4989144860624775e-002 -8.8541913201967595e-002
        -8.8295333505079523e-002 -9.2791320560137378e-002</alpha>
      <index>
        0 53 55 58 59 60 62 63 64 67 69</index></_>
    <_>
      <sv_count>34</sv_count>
      <rho>1.3911610089860409e+000</rho>
      <alpha>
        1. 1. 1. 2.6197840848488380e-001 1. 9.7029202122867964e-001 1.
        1. 1. 1. 4.0242231021927743e-001 6.7984717682029489e-002
        2.5008723685502049e-001 1. 1. 1.2179173034639315e-001 1. 1. -1.
        -1. -4.2231539503894973e-002 -9.2969977341962218e-001 -1. -1.
        -1. -1. -1. -8.3212173999768313e-001 -1. -1.
        -8.9995958041964230e-001 -7.9453038017050215e-001
        -5.7601341130493933e-001 -1.</alpha>
      <index>
        1 3 4 5 6 7 8 9 10 11 12 13 14 15 16 17 18 20 21 22 23 25 26 29
        30 31 33 34 35 36 37 38 39 40</index></_>
    <_>
      <sv_count>18</sv_count>
      <rho>6.5601283528016985e-001</rho>
      <alpha>
        5.4896270905084599e-001 5.6432957539754880e-001
        8.6863760198353446e-001 2.3544702689089594e-001
        1.9244001524167269e-002 2.8150035767450549e-001
        9.3828177900553456e-001 1. 9.8175660535237297e-002
        -2.5748243058147541e-001 -1. -1.4584365911208405e-001
        -9.2895709933285053e-001 -3.9072434022311020e-001
        -3.0537677557256021e-001 -1.7051400590955174e-001
        -3.5568040133063794e-001 -1.</alpha>
      <index>
        2 3 8 10 12 16 17 19 20 41 43 44 45 46 47 48 50 51</index></_>
    <_>
      <sv_count>37</sv_count>
      <rho>1.1593424235928427e+000</rho>
      <alpha>
        1. 1. 1. 1.7130598860249049e-002 1. 1. 1. 1. 1. 1. 1.
        8.3162109738633383e-001 1. 6.1803945642805025e-001 1. 1. 1. 1.
        -1. -1. -1. -1. -3.0811522281408049e-001
        -3.6993226526758810e-001 -1. -1. -6.9186293848807723e-001
        -8.5233871851141085e-001 -1. -1. -1. -8.1106042145025958e-001
        -4.3348158614321713e-001 -1. -1. -1. -1.</alpha>
      <index>
        1 3 4 5 6 7 8 9 10 11 12 13 14 15 16 17 18 20 52 53 54 55 56 57
        58 59 60 61 62 63 64 65 66 67 68 69 70</index></_>
    <_>
      <sv_count>20</sv_count>
      <rho>3.7933044217379031e-001</rho>
      <alpha>
        7.0712886156014321e-001 7.0238932355785794e-002
        1.9291518281948439e-001 5.0755162008196730e-001
        2.1453980698479883e-001 5.0979161118804295e-001
        1.1536816719412328e-001 5.2512804961926685e-001
        4.7002744267260532e-001 3.7492015392166844e-001
        4.1499192781410948e-001 1. -8.5008799345412311e-001
        -3.7419633067240321e-001 -9.8341154104532646e-001
        -8.4854178822727044e-001 -5.5270210895524918e-001
        -2.5977312155637539e-001 -2.3388887230124888e-001 -1.</alpha>
      <index>
        22 24 26 27 30 31 33 34 36 37 39 40 41 42 43 45 46 47 48 51</index></_>
    <_>
      <sv_count>36</sv_count>
      <rho>-1.5359428213670834e-001</rho>
      <alpha>
        1. 1. 2.9146657421785088e-001 1. 1. 9.9342874769386824e-001
        3.7944990117137883e-001 1. 1. 1. 3.1877656840450508e-001 1.
        7.8925108397987664e-001 1. 1. 7.2977890119508237e-001
        7.2346043457999476e-001 1. 1. -7.4569276263250417e-001 -1.
        -9.6156542324621996e-001 -1. -1. -1. -1. -1.
        -8.1718570628131959e-001 -1. -8.9448692546990360e-001 -1. -1.
        -1. -8.8229812824108755e-001 -1. -9.2438326537152160e-001</alpha>
      <index>
        21 22 24 25 26 27 28 29 30 31 32 33 34 35 36 37 38 39 40 53 54
        55 56 57 58 59 60 61 62 63 64 66 67 68 69 70</index></_>
    <_>
      <sv_count>19</sv_count>
      <rho>-3.0068351129487364e-001</rho>
      <alpha>
        6.9323385494384959e-001 1. 8.2312063639770516e-001
        5.4066323401685679e-001 4.3900245841551983e-001
        1.1222155034014862e-001 1. -1.6166122247673467e-001 -1.
        -4.2715302374732406e-001 -1.2268163430452950e-001
        -6.5056443132745712e-001 -9.4100511808496556e-001
        -3.2758969972022484e-001 -2.3342052443074526e-001
        -9.6665048987412613e-002 -3.5175754604462006e-001
        -2.1768538474106303e-001 -7.8058100249003351e-002</alpha>
      <index>
        41 43 45 46 47 48 51 53 54 55 56 57 59 60 61 62 65 69 70</index></_></decision_functions></my_svm>
</opencv_storage>
